,0,1,2,3,4,5,6,7,8,9,10,11,12,13,14,15,16,17,18,19,20,21,22,23,24,25,26,27,28,29,30,31,32,33,34,35,36,37,38,39,40,41,42,43,44,45,46,47,48,49,50,51,52,53,54,55,56,57,58,59,60,61,62,63,64,65,66,67,68,69,70,71,72,73,74,75,76,77,78,79,80,81,82,83,84,85,86,87,88,89,90,91,92,93,94,95,96,97,98,99,100,101,102,103,104,105,106,107,108,109,110,111,112,113,114,115,116,117,118,119,120,121,122,123,124,125,126,127,128,129,130,131,132,133,134,135,136,137,138,139,140,141,142,143,144,145,146,147,148,149,150,151,152,153,154,155,156,157,158,159,160,161,162,163,164,165,166,167,168,169,170,171,172,173,174,175,176,177,178,179,180,181,182,183,184,185,186,187,188,189,190,191,192,193,194,195,196,197,198,199,200,201,202,203,204,205,206,207,208,209,210,211,212,213,214,215,216,217,218,219,220,221,222,223,224,225,226,227,228,229,230,231,232,233,234,235,236,237,238,239,240,241,242,243,244,245,246,247,248,249,250,251,252,253,254,255,256,257,258,259,260,261,262,263,264,265,266,267,268,269,270,271,272,273,274,275,276,277,278,279,280,281,282,283,284,285,286,287,288,289,290,291,292,293,294,295,296,297,298,299,300,301,302,303,304,305,306,307,308,309,310,311,312,313,314,315,316,317,318,319,320,321,322,323,324,325,326,327,328,329,330,331,332,333,334,335,336,337,338,339,340,341,342,343,344,345,346,347,348,349,350,351,352,353,354,355,356,357,358,359,360,361,362,363,364,365,366,367,368,369,370,371,372,373,374,375,376,377,378,379,380,381,382,383,384,385,386,387,388,389,390,391,392,393,394,395,396,397,398,399,400,401,402,403,404,405,406,407,408,409,410,411,412,413,414,415,416,417,418,419,420,421,422,423,424,425,426,427,428,429,430,431,432,433,434,435,436,437,438,439,440,441,442,443,444,445,446,447,448,449,450,451,452,453,454,455,456,457,458,459,460,461,462,463,464,465,466,467,468,469,470,471,472,473,474,475,476,477,478,479,480,481,482,483,484,485,486,487,488,489,490,491,492,493,494,495,496,497,498,499,500,501,502,503,504,505,506,507,508,509,510,511
0,0.05663958,0.035588324,-0.055999357,-0.039429564,0.042434614,-0.052932873,0.0609917,-0.033709243,0.043702256,-0.031204317,-0.051101226,0.023993943,0.0002552242,0.02827992,-0.04375498,0.01634506,0.012735967,0.04332579,-0.02127554,0.02443713,-0.041728582,-0.0434408,-0.04351424,-0.0014028713,-0.029257877,-0.06935814,0.03728948,0.015078457,0.0020364884,0.040430367,-0.053878877,-0.04883016,0.008195178,-0.0646406,0.055431142,-0.00011368059,0.059101388,-0.08424574,-0.03731241,0.014467887,0.034906182,-0.051260453,-0.0913596,-0.09445291,-0.0053684516,0.00053605915,0.099359676,-0.10913399,0.069940865,0.009728004,-0.03323048,-0.08635519,-0.06427327,-0.067484245,0.015726948,-0.053963363,0.029641626,0.003198387,0.02951543,-0.021594293,0.0117796175,0.03216925,-0.08305962,-0.03614435,0.032096993,-0.10698142,-0.10156466,-0.03225122,0.027498145,0.031160941,-0.05483935,0.015545634,-0.019068012,0.03629578,-0.038498458,-0.06681645,-0.0060532517,-0.090900436,0.036305644,-0.027313888,-0.07395765,-0.09149266,-0.031061947,0.038825724,-0.02332342,-0.09423434,0.030935507,0.017035736,0.047923766,0.012164753,-0.025146939,0.04334713,0.07520725,0.07866313,-0.044048097,0.022121884,0.015917625,0.036152076,-0.13793314,0.04192665,-0.047178097,0.03936197,0.06498562,-0.07072598,-0.09018907,-0.06847428,0.05454462,-0.02420631,-0.062263902,-0.030139025,-0.08944006,0.009647463,0.053278573,-0.043020047,-0.047490798,0.05523215,0.07530984,-0.0972,0.029659979,0.05992863,-0.08090418,-0.030579807,0.023977432,0.06122455,0.0017207505,0.06725334,-0.048266973,0.036977597,0.025161557,0.048572052,-0.09643795,-0.022269024,-0.07829764,-0.022022521,0.07001923,0.048027843,-0.020744456,0.02670052,-0.046711598,-0.042858172,-0.03287408,0.01688455,0.030367903,-0.10301206,-0.041135836,-0.054671936,0.07851868,0.05443409,0.007833249,0.028751543,-0.06440727,-0.080267325,0.022129213,-0.074043304,-0.036695134,-0.06786719,-0.10258354,0.037351396,0.058431853,-0.031329963,0.03045832,-0.039277174,-0.19724812,-0.011236329,0.0002618272,0.001466352,0.01520515,-0.04300925,0.09927475,0.028767886,-0.018380672,-0.044360433,-0.020661326,-0.038291086,0.020866962,-0.030076567,-0.088836096,0.013194033,0.016720347,-0.032263774,0.0019290184,-0.04978352,0.010809788,0.010937608,-0.07358237,-0.03297315,0.088787146,0.042207316,0.05021122,-0.039700195,-0.03510179,-0.018366756,-0.018448483,-0.12071776,0.040017013,0.057237618,-0.070950046,-0.049125724,0.017687459,0.0376988,0.0073142033,-0.08073823,-0.07957237,-0.08750746,0.085272826,-0.016262067,-0.086320005,0.037004992,0.0675261,0.0717373,0.046309244,0.0207429,-0.043935042,0.03314007,0.03337814,-0.05840065,0.020468779,-0.04777582,0.02806098,-0.037348617,-0.06967241,-0.0041749487,0.00026413577,-0.007116359,-0.04320241,-0.05202737,0.080587834,-0.056421425,-0.08900039,-0.035925984,0.021648776,0.0010694081,-0.090436995,-0.0821685,-0.0109093115,-0.084278695,0.043807734,-0.025326774,-0.0396598,-0.07577429,-0.082995795,-0.0031185476,0.06766626,0.0070206625,-0.10101582,0.04937987,-0.036440838,0.029945336,0.07807653,-0.07114541,0.024730958,-0.08391872,-0.027216244,-0.037474833,-0.07247511,-0.020149479,0.024581097,-0.0010196323,0.050159086,0.011783558,-0.09164036,0.037714448,-0.038016304,-0.007343535,0.04620848,-0.08671913,-0.0987939,-0.01781056,0.054443873,-0.083909616,-0.043003947,-0.083803184,-0.10202932,-0.05888835,-0.017931795,0.062653214,-0.092375465,0.020220133,0.059181828,0.004758232,-0.05463258,-0.070589975,0.07962777,-0.06477665,-0.059919212,0.00704065,0.091308475,-0.039596446,-0.054000143,0.08189467,-0.09033821,-0.027326446,0.03837238,-0.046305824,-0.04007424,0.05422706,-0.09528369,0.0076151663,0.096786946,-0.024006855,-0.09489998,-0.012445195,-0.07357206,-0.042072497,-0.05720141,-0.019066047,-0.06713957,-0.03241254,-0.021741731,0.01260682,-0.0652103,0.038680017,0.025307823,0.04566567,0.007276611,0.03797597,-0.037620693,0.0454754,0.04676153,-0.062068097,0.028058307,0.018279837,-0.20597748,0.070508115,0.018483218,0.021166626,0.011471015,0.00933844,0.12038925,-0.035598,-0.026343105,-0.09715877,-0.082585305,-0.02248647,0.026498776,0.038391028,-0.09425612,0.0173118,0.020215975,0.0019661398,-0.09299764,-0.0260097,-0.036987886,-0.056514733,-0.066147014,0.044926323,-0.06875927,0.024001356,0.0400444,0.081050664,0.040426347,-0.06276941,0.034441173,-0.07071466,-0.058660462,-0.046300072,0.00082235044,0.0750299,0.08562147,-0.0498593,0.053995032,-0.08497797,0.039571676,-0.03711222,-0.018944727,0.0010626882,-0.04480799,0.05062837,-0.05905566,-0.05322147,-0.058827914,0.027936716,-0.016117768,-0.06546179,-0.07392667,-0.03321671,-0.06337037,-0.043254096,-0.028181868,0.053949323,-0.0035425373,-0.034965232,0.023428554,-0.0049095093,-0.07684976,-0.041380633,-0.06560496,0.0383834,0.0013136856,-0.02877375,-0.057346053,-0.049706016,-0.038602352,0.056592967,-0.010328016,0.03654347,-0.053472698,-0.09487987,-0.030633261,0.028408531,0.0015524845,0.008140985,0.028371198,-0.043666817,-0.04737533,0.0031993766,0.04116024,-0.037468843,-0.02611925,0.06903309,0.027712384,0.017096797,0.053897325,-0.030251928,-0.024536256,0.015068552,-0.2634405,0.035497572,-0.09485755,0.0023443159,-0.09192299,0.05098895,-0.047703937,0.0046566343,-0.032053795,-0.052418627,0.0038064565,0.047274385,0.043239273,-0.06932044,-0.10410549,0.025336945,-0.012063792,0.0032041266,-0.065930665,0.03466158,0.041411106,0.03697932,-0.09588436,-0.038069386,-0.08209544,-0.031666763,-0.007130564,0.063681774,-0.0014306484,-0.041762646,-0.044071373,-0.095295064,-0.10273276,-0.08288619,-0.056956872,0.07308977,0.034988005,0.032025874,0.005682402,0.01693953,-0.06023369,-0.031026874,-0.04227271,-0.05647647,0.07189207,-0.033054747,-0.084069766,-0.025731035,0.03497617,0.10051741,-0.06173447,0.048020817,-0.30954662,-0.01888477,-0.052706674,0.11386385,-0.0042647026,-0.057040956,-0.09381983,-0.007337782,0.008794637,0.003057006,-0.079076625,-0.02016333,-0.10303999,0.02245604,-0.07718569,0.08925555,0.0056241876,-0.1655866,0.03237512,0.014003067,-0.032808926,0.02649556,0.05983841,0.027237022,-0.012337152,-0.093069725,0.06028171,0.05366081,0.0056716506,-0.06494806,-0.026614824,-0.019019555,-0.003938088,0.05775558,-0.041978393,-0.050869755,-0.072606064,-0.001266227,-0.07084172,-0.0670181,-0.00029167725,-0.08962832,-0.03928596,0.0142084975
1,-0.076669626,-0.04572335,-0.100165166,-0.08597258,0.02604878,-0.056996275,0.04853165,-0.07457249,-0.03731781,-0.04386125,-0.4459449,-0.10262973,0.024367964,-0.021432756,-0.025398524,-0.09707662,-0.024508126,-0.055534527,0.007306615,-0.01486886,0.013554521,-0.023009403,-0.031186597,-0.040583532,-0.07209025,-0.04696603,-0.06786565,-0.068102665,-0.09198148,-0.050122533,-0.061790626,-0.045232706,-0.023563428,-0.083939254,-0.042643853,0.013929781,-0.08472914,-0.08313534,-0.0955552,0.024693001,-0.03789876,-0.021139745,-0.06930983,-0.0893746,-0.049893882,-0.04766493,-0.024995834,-0.06313091,0.06786127,0.089744434,-0.08722453,-0.017506473,-0.024881732,-0.056350634,-0.062235776,-0.09062207,-0.026165882,0.053922635,0.023009218,-0.07509172,0.043104768,0.046582278,-0.03185777,-0.055629984,-0.025006173,-0.085760415,-0.044230286,-0.054542717,-0.021689737,-0.031224633,-0.049518254,0.017553518,0.02418285,-0.059543855,-0.07015896,-0.022128535,-0.06673097,-0.030882528,-0.030881206,-0.09808793,-0.022457303,-0.06837341,0.031681243,0.0587198,-0.079700984,-0.031863995,-0.012560293,-0.02371938,-0.004121319,0.03962045,-0.08053241,0.012915705,-0.10322249,-0.089780465,-0.06974548,0.009241119,-0.0967529,-0.03970515,-0.33701888,0.092248,-0.09249816,-0.039476532,0.000600904,-0.016649764,-0.08449087,-0.07355578,0.06507814,-0.037967704,-0.013892439,-0.024291756,-0.075480744,-0.079748385,-0.024382547,-0.03256023,-0.0629549,-0.0742137,-0.06349215,-0.038730994,0.071800105,-0.04269002,-0.10137553,-0.020015042,0.037385162,0.09415858,0.030108808,-0.04012976,-0.09698669,0.050073028,0.028191082,-0.0641851,-0.04220665,-0.05959023,-0.042468183,-0.06505846,-0.08004014,-0.10049446,-0.09376592,0.00949692,-0.036094237,0.073113546,-0.0008066485,-0.0745321,0.023872806,-0.056487743,0.030872209,-0.077849135,-0.016983332,-0.07208252,0.06710814,-0.053577382,-0.021737395,-0.09790041,0.013224864,-0.026324157,-0.018664557,-0.049975045,-0.02975923,0.033509992,-0.06402912,-0.05908295,-0.10077419,-0.05699649,0.09563784,-0.021708118,-0.08197902,-0.017435698,0.029480476,-0.023534393,0.012615484,-0.08971395,-0.049403746,-0.080834545,-0.10202361,-0.060185507,-0.035395037,-0.09362368,-0.04566984,-0.022210324,-0.07763634,0.030538805,-0.097551234,-0.052963607,-0.024561813,-0.07645075,-0.041673366,-0.0722577,-0.027609847,0.04216209,-0.029632548,-0.071533576,0.0110096,-0.07699994,-0.10368835,-0.020672185,-0.08166995,-0.07538485,-0.022261577,-0.04917238,-0.059097,-0.042568564,0.080085225,-0.0253482,-0.034988716,-0.036073137,0.07158526,-0.041932106,-0.04706725,0.026090883,-0.103962354,0.02265884,-0.10142672,0.046784952,-0.04050088,-0.014566356,0.0017542425,-0.0432979,0.05118799,-0.016056836,0.040468197,-0.08677709,-0.018215828,-0.06333173,-0.02205922,-0.037549965,-0.024302268,-0.03512086,0.012469789,-0.019265726,-0.03938682,-0.07321791,0.040023316,0.023306817,-0.060154602,-0.03861714,-0.039027058,-0.07350957,-0.031874157,-0.02510649,-0.04521221,-0.05413718,-0.04364285,0.01264544,-0.023463417,-0.10408352,-0.031050045,-0.07405955,-0.033494815,-0.026389943,0.0668699,-0.09899259,0.00268959,-0.04544351,-0.038390763,-0.043979082,-0.09176311,-0.02741056,0.013545563,-0.029431202,-0.0937374,0.020217633,-0.06490685,-0.03518061,-0.021362523,0.021169703,0.040859953,-0.05131226,-0.038239766,-0.0730532,-0.08799413,-0.075918354,-0.08099011,-0.07304796,-0.087131724,-0.055419516,-0.05282323,-0.04101352,-0.04462772,0.046085346,0.01190269,0.04056376,-0.07241092,-0.08681962,-0.09953365,-0.04138458,-0.083638795,0.02947104,0.086968444,-0.00962478,-0.020582058,0.03009453,-0.08062299,0.07483372,-0.05731285,-0.06664984,-0.051461916,-0.03752904,-0.06752064,0.0056268466,0.016018217,-0.061689094,-0.034800943,0.0029782911,-0.02836712,-0.042608786,-0.074258894,-0.05180511,-0.079252586,-0.024609746,-0.05639761,-0.068665,-0.046185676,-0.09887416,0.014166762,-0.08667412,0.034119774,-0.09721264,-0.023707977,0.067393534,-0.07999239,-0.061650783,0.056482807,-0.04245633,-0.026785392,-0.057143666,0.02981408,-0.026176007,-0.0635985,0.010970556,0.13190648,0.06430667,-0.0825391,-0.057350103,-0.088280216,-0.041542236,-0.005933175,0.008098475,-0.020252172,-0.04459168,-0.088684484,0.00014120013,-0.10235843,0.03662515,-0.031982914,-0.045509674,-0.06001616,-0.09416728,-0.0734277,0.002154369,0.01031397,0.016696569,-0.027307127,-0.099287674,-0.0043193935,-0.044064455,-0.045751713,-0.02173356,-0.08561685,-0.08548927,0.043996546,-0.024821876,0.0047415867,-0.04880561,-0.097605884,-0.07660935,-0.041254994,-0.0010846165,-0.061076257,0.05130557,-0.09220562,-0.020490296,-0.055555344,-0.03032137,-0.050327625,-0.07595856,-0.05802351,-0.09126069,-0.045538392,-0.043729972,-0.053644415,-0.035944644,-0.031454913,-0.03872918,-0.09963657,-0.07379105,-0.09398916,-0.076414324,-0.07933598,-0.15356772,-0.0010336703,-0.087257504,-0.027301965,-0.019419061,-0.012248108,0.06043648,0.00046754553,-0.10278694,-0.054537836,-0.08928905,-0.07299503,0.00813626,-0.036471527,0.02371652,-0.026048088,-0.073194854,-0.054766763,-0.029644907,0.08994124,-0.020697854,-0.17321059,1.5019895e-05,-0.050015032,-0.09439222,-0.06270968,-0.032426864,-0.03466289,-0.04284596,0.21076219,0.03795452,-0.033076447,-0.069382995,-0.07541576,0.0072826436,-0.076665424,-0.101730525,-0.041183203,-0.035617463,-0.06674112,-0.056135386,-0.06332073,-0.04371715,0.06269917,0.043505084,0.03476358,-0.039523296,-0.0442286,-0.01000415,-0.029986676,-0.031079972,-0.07499629,-0.10049397,-0.018935014,-0.039841004,-0.00190977,-0.014613192,0.039182007,-0.0068249973,-0.017694153,-0.0420816,-0.019561883,-0.049587335,-0.02024282,-0.07685842,-0.020324748,0.071329094,0.035261806,-0.005497398,-0.07982601,-0.0854266,-0.03589671,-0.034043256,-0.049317177,-0.071706064,-0.051630687,-0.03745091,-0.025718454,-0.010583863,-0.04836321,0.076444,0.15373422,-0.051226694,-0.063987985,-0.2941589,0.019954836,-0.03991362,-0.022991743,0.032967955,-0.13055225,0.037733823,-0.04270953,-0.07554542,-0.09672362,0.036529757,-0.060101457,0.07191658,-0.074802145,-0.24467048,-0.029198145,0.11464492,-0.098299064,0.017851902,0.08263078,-0.038878713,0.036221135,-0.054458685,-0.091308825,-0.05135035,-0.06363177,-0.0906046,-0.025842017,0.015238572,-0.03948338,0.05782679,-0.033209834,-0.09442238,-0.07435706,-0.079977676,-0.04970783,-0.06650037,-0.028444601,-0.08812903,-0.03386903,-0.013862757
2,-0.09355399,-0.078642376,-0.067975424,-0.042387355,0.0021428196,-0.035850313,0.09427427,-0.095663644,-0.008744354,-0.052162997,-0.4462151,-0.07069363,-0.014489591,-0.0415112,-0.061091334,-0.04633475,-0.0028122056,-0.082810014,0.004437759,0.006612525,0.041986976,-0.061357457,-0.031444773,-0.080330916,-0.057447456,-0.04364961,-0.026112655,-0.09645597,-0.09559812,-0.08660827,-0.025684755,-0.05534353,0.08245859,-0.08256795,-0.06311615,-0.016211158,-0.09389055,-0.06516083,-0.07564191,-0.04598104,-0.10057226,-0.04400694,-0.06369916,-0.08363461,-0.091726124,-0.09796252,0.04332666,-0.025210124,0.04144459,0.03948402,-0.09231328,-0.060131732,-0.10384613,-0.027144335,-0.076551154,-0.04146399,0.023024388,-0.041492455,0.046003472,-0.05322709,-0.033652175,0.057896912,-0.032796517,-0.043459687,0.037769143,0.011472563,-0.026520265,-0.06289224,-0.030050248,0.0021467626,-0.07800235,0.04290448,0.064979546,-0.04743112,-0.0995036,-0.029138183,-0.09202633,-0.037828717,-0.026555464,-0.09988924,-0.087431595,-0.05104031,-0.028167699,0.056797933,-0.08210203,0.01076397,-0.002558024,-0.04694478,-0.06423738,0.005448323,-0.09738619,0.005887879,-0.08624593,-0.080053106,-0.035566147,-0.08752451,-0.100032136,-0.03950963,0.12263615,-0.010841575,-0.058069736,-0.09211327,0.010468166,-0.031937465,-0.025887221,-0.057661142,0.053640287,-0.043379746,0.02700908,-0.033243973,-0.016711887,-0.08092317,-0.0821841,-0.033019107,-0.070326425,-0.045412675,-0.05573929,-0.08846807,0.012273732,-0.0583301,-0.050644584,-0.016468652,0.029922966,0.01728283,-0.031199008,-0.102221735,-0.07848885,-0.023710936,-0.041625597,-0.053433962,-0.07656495,-0.032455605,-0.09148694,-0.04201452,-0.074790366,-0.043832537,-0.037106212,-0.015468757,-0.021374222,-0.021472268,-0.0047834986,-0.03870111,-0.082541786,-0.0383834,0.008186956,-0.030868515,-0.09757853,-0.020617265,-0.04528947,-0.07282354,-0.091285825,-0.014057914,0.010020713,-0.038488854,-0.04749612,-0.07250665,-0.07817811,0.02770383,0.046224255,-0.019008253,-0.095251136,-0.064726025,0.13813768,0.026125962,-0.10113033,-0.011510215,0.06641284,-0.0268409,0.01918789,-0.03184607,-0.07504873,-0.06822036,-0.06982257,-0.061592065,0.001633027,-0.05741506,0.033779334,0.03652964,-0.022513762,0.03661169,-0.022539709,-0.083262995,-0.09170491,-0.031019991,-0.006200212,-0.027667843,0.0008659386,0.038094908,-0.10342759,-0.077176936,-0.039161228,-0.049408223,-0.04255064,0.020285316,-0.039548915,-0.08044327,-0.047451086,-0.060448773,-0.036214206,-0.051613644,0.0029908048,-0.063504644,-0.05459788,-0.0472059,-0.00921792,-0.07777878,-0.011718856,0.043481752,-0.04904369,0.007093269,-0.10046515,0.021973718,-0.030500265,0.030083293,-0.10024398,0.039403994,-0.013952566,-0.09175548,-0.013742288,-0.019588498,-0.042154476,-0.07532962,0.04245282,-0.060634755,-0.0062021613,-0.04471848,0.04243105,-0.04188394,0.020569254,-0.08779568,-0.013148415,-0.034727674,-0.08397368,-0.07913044,-0.00029297854,-0.09777224,-0.084545985,-0.082390755,-0.021315461,-0.01635455,-0.093604594,-0.05283257,-0.10380636,-0.04428052,-0.09101791,-0.07624827,-0.066820435,-0.031809494,0.0029013972,-0.027272694,0.0002667798,-0.022846743,-0.041870736,-0.07997243,-0.08689978,-0.03890072,-0.008111535,0.020671854,-0.045727685,0.01725944,-0.022338128,0.0084139705,-0.104196414,-0.021535117,0.10021785,-0.046158545,-0.04311623,-0.030585535,-0.09698458,-0.08383123,-0.019695625,-0.07105181,-0.03732968,-0.045307353,-0.037200432,-0.021359863,-0.027379498,0.011396982,0.038429674,0.00031169175,0.02942259,-0.050398387,-0.095537595,-0.06668514,-0.023881247,-0.063017204,0.04256265,0.022421801,-0.062110994,0.048560537,-0.09636665,0.006414982,-0.09605697,-0.048032533,-0.08892667,-0.031142253,-0.041934934,-0.0009611325,0.049486052,-0.103448085,-0.07186637,-0.041939944,-0.09636499,-0.008008671,0.01839308,-0.07883026,-0.036372263,-0.017252278,-0.06023233,-0.088219926,-0.07754212,-0.08426015,0.024978982,-0.042464066,0.0069399895,-0.07489383,-0.06754044,-0.0107749645,-0.0500954,-0.046336915,0.03490154,0.019116454,-0.03555215,-0.059202075,-0.04161804,-0.084405445,-0.104162686,-0.026873272,-0.13755482,-0.042991932,-0.025543615,-0.096324235,-0.09545409,-0.0007867394,-0.002907964,0.063014835,-0.06124327,-0.046226043,-0.08145703,-0.08812803,-0.09035692,-0.018793285,-0.056049738,-0.042398967,-0.08729663,-0.0243058,-0.06800307,0.10634351,0.01592944,0.031889234,-0.06468799,-0.08781181,-0.029829247,-0.074953705,-0.057480887,-0.06046146,-0.021073222,-0.02686534,-0.0101866955,-0.03193509,0.026164498,-0.0850644,-0.07979419,-0.10233659,-0.06486245,0.0103490185,-0.019008694,-0.005392052,-0.068319865,-0.04334392,-0.10199525,-0.036767844,-0.063206024,-0.09197107,-0.01963885,-0.05237458,-0.021187782,-0.037597734,-0.018440198,-0.0022749868,0.0052821958,0.020311013,-0.10474605,-0.0679698,-0.09878342,-0.095403194,-0.08514764,-0.11300785,-0.056749575,-0.09377182,-0.07159639,-0.064776234,-0.027743787,0.017418789,-0.027725367,-0.08541633,-0.02442109,-0.09900332,-0.0772645,-0.07259545,-0.025976587,-0.02507082,-0.046649992,-0.03709026,-0.100697406,-0.013267992,-0.0511381,-0.05780737,-0.10627608,0.019667253,-0.10259477,-0.03705685,-0.06315602,-0.01820192,-0.09270456,-0.09704291,-0.20645656,-0.0069115246,-0.030815829,-0.06275222,-0.0325141,0.023190375,-0.01602232,-0.038318243,-0.08638874,-0.051765803,-0.049897898,-0.096456125,-0.07527856,-0.0937173,0.05393337,-0.0024181702,0.040725444,-0.02428254,-0.020685565,0.010761724,0.007432844,-0.056305625,-0.04355863,-0.020165564,-0.058493603,-0.02611977,-0.0546209,-0.011690925,0.028315516,-0.026225645,0.001196765,-0.044053584,-0.030763665,-0.103419766,0.048057858,-0.016709417,0.0017804409,-0.04381214,0.0323712,0.034753684,0.04631617,-0.021573748,-0.045496054,-0.047475915,-0.063108765,-0.07114087,-0.05946544,-0.05705767,-0.043414954,0.075242214,-0.030116083,0.052792944,0.15997739,-0.022498092,-0.030747076,0.117898606,0.04336763,-0.030691192,-0.08103705,-0.025542928,-0.099552006,0.044607073,-0.075866394,-0.04482026,-0.022994645,0.007974873,-0.029811604,0.010348571,-0.0682274,-0.2502115,0.02952804,0.026251037,-0.06705573,0.049617037,0.03135381,-0.08580755,-0.0133851385,-0.022353,-0.052847207,-0.0910723,-0.0973185,-0.04333839,-0.038210057,0.01815035,-0.093107745,-0.09383715,-0.021568969,-0.018977229,-0.09544149,-0.02359085,-0.08422686,-0.09269847,0.028779732,-0.08658851,-0.014186829,-0.02491926
3,0.049717106,0.013862237,0.04625697,-0.034449197,-0.009316787,-0.035206813,0.05886859,0.04844418,0.017316533,0.054588098,0.0006096535,0.076594494,0.059343126,0.03711583,0.08902836,0.012267347,-0.13382477,0.04166801,-0.0105824005,0.022391258,0.0281186,-0.07612246,-0.08521933,0.016703298,-0.09090873,-0.042206086,0.020658841,0.011679596,0.0703347,0.04272462,-0.10388388,0.08200884,-0.033659317,-0.071408056,0.0397547,0.08450005,0.034033462,-0.020362597,-0.035573438,0.06706837,0.07800692,-0.101972744,-0.04214075,-0.07802949,0.01564279,0.027130095,0.013230139,-0.025452213,0.06311957,0.044677593,-0.037346624,-0.016759565,-0.062430624,-0.08552552,0.065529995,-0.071741715,-0.014370311,0.06840856,-0.013609305,-0.035768766,0.012124107,0.10455517,-0.07726397,-0.044996556,-0.0065933247,-0.024221286,0.0067855786,-0.08153901,-0.044103295,0.04022223,0.06805303,-0.008567857,-0.025663242,0.004275113,-0.09742984,-0.07169945,0.054649718,-0.052123517,-0.0133046275,-0.06751798,-0.040621895,0.045253474,0.09364097,0.05333698,-0.09580308,-0.019247651,0.02638717,0.058428273,0.04418975,0.11740928,-0.09144649,0.009754813,0.032910004,0.09721008,-0.06320813,0.09911432,0.08289009,0.057044886,0.038642265,0.060278475,-0.06550346,0.050282888,0.066524416,0.042251743,0.088814795,0.022357369,0.06557668,-0.035312407,0.009429689,-0.07657664,-0.018694513,0.09766646,0.05235769,-0.08919144,0.003098258,0.053075906,0.084141605,0.032656044,0.078235835,0.059350714,-0.037904706,-0.038694,0.09491992,0.055614613,0.047870502,0.09042368,-0.061839655,-0.03216722,-0.021811599,0.017490521,-0.07842269,0.06869953,-0.05946503,0.054085556,0.019628618,0.06896921,-0.078524806,0.036088575,-0.027676798,0.01566572,0.03381025,0.078696065,0.08295682,-0.10151379,-0.0049679726,0.058017056,0.059610624,-0.00326704,0.073878534,0.054056223,-0.04394322,-0.039002534,-0.03592735,-0.028788416,-0.06279018,-0.037816778,-0.019130023,0.007554301,-0.07255372,-0.03909512,0.04374036,-0.08321363,-0.078832895,0.042410485,0.03715022,0.01567491,0.048973404,0.035455316,0.043051142,0.025071433,0.045092124,-0.032647964,-0.06232241,0.025966443,-0.017150985,0.08379013,-0.07923081,0.034892328,0.060307063,0.01699716,0.07562722,-0.027777156,0.05016667,0.057482988,-0.038006213,-0.09675646,0.021960609,0.052197374,0.04612207,-0.0343358,-0.037804995,-0.05103025,-0.034184583,-0.092828035,0.09486756,0.047111075,-0.08048629,-0.06138096,0.054633204,0.06936431,0.09284056,-0.09948549,0.07861132,0.016548112,0.06120231,-0.02103991,-0.029319977,0.02687585,0.026102437,0.06477054,0.019887535,0.02505854,-0.049087532,-0.03401884,0.078161925,-0.04061364,0.07675898,-0.017163383,0.07849711,-0.10413268,-0.060793437,0.024703847,-0.019506255,0.021821732,-0.02256648,-0.035681635,-0.00636952,-0.05679508,0.029217482,-0.056547374,-0.008994959,0.0615472,-0.06457637,0.06783927,0.024710635,-0.10221958,0.07699599,-0.022512507,0.01619896,-0.049136896,-0.100487545,0.07171219,0.014343891,0.005993194,0.0045805755,0.048176948,-0.07647401,0.03978327,0.08368683,-0.06979301,0.025662584,0.003266625,-0.05651274,0.018109474,-0.05913467,-0.05733641,0.0510224,0.083132125,0.0093847755,0.018769776,-0.081281744,-0.03389379,-0.09762332,0.017273633,-0.026004354,-0.03887726,-0.07019015,-0.10250724,0.06831272,-0.09866241,-0.08559775,-0.03864793,-0.07751532,0.059398063,0.05564918,0.006349392,-0.073762365,0.07092259,-0.046762317,0.030455772,-0.0231733,-0.02230988,0.072928555,-0.028969657,-0.055376202,0.039657123,-0.012699985,-0.03995379,-0.0956469,0.009102416,-0.025605863,0.048475467,0.023170196,-0.084616534,-0.041214664,0.057347696,-0.032802206,0.036769744,0.0017160075,-0.095572576,-0.019861516,0.096398965,-0.017919488,-0.006964092,-0.05993794,-0.040997066,0.002892219,-0.07741146,-0.08463565,0.06603122,-0.018134506,0.0810262,-0.0345829,0.0705168,-0.014611796,0.006440256,-0.055741165,0.06203017,0.023934048,-0.084947184,0.07624298,0.034831543,-0.0015539756,0.07546758,-0.06293195,0.039542798,0.018193316,0.08058475,-0.1910885,-0.08429918,-0.06461023,-0.068305485,-0.03836789,-0.0390324,-0.058131196,-0.0085154055,-0.019811133,0.030444754,0.08231969,0.031817343,-0.023093712,0.015171268,-0.0784899,-0.09943306,-0.09011396,0.065323785,0.015662033,-0.0005419565,0.05087721,0.04157487,0.06845879,-0.0394985,0.03655471,-0.082602076,0.072410055,-0.103898674,0.024779994,0.09662841,0.072722316,-0.049044583,0.07834262,-0.099672146,0.031545144,0.02889851,-0.032061845,0.08171655,-0.08091913,0.063547775,0.061861753,-0.057391096,-0.05168282,0.06559801,-0.013643363,-0.02032849,-0.09547075,-0.042047925,-0.017080903,-0.05007818,-0.035062645,-0.009883323,0.045127016,0.01784524,0.044711716,0.055143286,0.020286202,0.03009565,-0.067934856,-0.14676525,0.0554266,0.004667924,-0.06874617,-0.01586146,-0.012354499,0.057312436,0.0011945575,0.0023120507,-0.02910093,-0.07251576,-0.06678663,0.11186891,0.049423274,0.020755716,0.010274008,-0.019193146,0.040808372,0.01134296,0.012158133,-0.05038023,-0.16848923,-0.018652773,0.041449748,0.03512671,0.033371843,-0.07914221,-0.09515973,-0.03391837,-0.18200329,0.045399524,-0.037876043,0.023010463,-0.07257925,-0.025906483,-0.039820883,0.04381772,0.062461436,-0.021559676,0.05855866,0.028734703,0.019680427,-0.08490773,-0.15463327,-0.03648486,0.07204607,0.033754483,-0.082665354,0.033196587,-0.033901174,0.07799342,0.022337526,-0.06789757,-0.056158286,0.008291774,0.051075492,0.073864974,0.03025629,-0.012406172,0.08212907,-0.08055508,-0.059448455,-0.033526234,-0.076300405,0.012351253,0.03378027,0.09727417,-0.0073282835,-0.043037895,-0.049994547,-0.022779094,-0.01707016,-0.024927923,0.08716158,0.029673072,-0.055743337,-0.04254265,0.044245645,0.030686798,0.056552276,0.027554162,-0.2995481,-0.03731705,0.03967746,-0.33965743,0.011590905,-0.022911618,-0.05669697,-0.0152633805,-0.09669251,0.12544401,0.05367786,0.06458634,0.026740983,0.022663184,-0.050740764,-0.03326202,0.087012745,-0.2399754,-0.008587371,0.10584115,0.040366568,0.032596607,0.03448687,0.046696354,0.011602295,-0.049060203,0.09524142,0.057140205,0.067594975,-0.093936555,-0.038537353,0.025971701,0.060406435,0.07614582,-0.08696349,0.002390237,-0.08164201,0.03207031,-0.07369202,0.011189763,-0.023809744,0.042320948,0.023474883,0.031243527
4,0.06662594,-0.08033979,0.028591085,-0.08149746,-0.004788667,0.05243576,0.00832621,0.023449639,-0.0052655004,0.08414991,-0.4463686,0.086702354,0.10197842,-0.08942659,0.060272023,0.09648689,-0.0075989524,0.07681962,-0.02693048,-0.010006901,0.026591659,-0.07713804,-0.07669353,-0.016115516,-0.022290617,-0.021472955,0.09434924,-0.09218473,-0.07516615,0.095028654,-0.07866216,0.09304723,0.0362265,-0.028691132,0.08550042,-0.039603703,0.10048033,0.04506695,-0.028869063,0.0033884144,-0.01879857,0.03744104,0.024369009,-0.08260467,0.025006624,0.08128413,0.035233643,-0.03894672,-0.02646048,0.033310633,0.045596212,-0.07266303,0.060921956,-0.048323948,0.08599252,0.09907977,-0.028739318,-0.059223212,-0.03785364,0.047972754,0.03873631,0.08674738,0.07965367,0.10022757,0.021065228,-0.0427469,0.026994983,0.05366081,-0.027858283,-0.01900031,-0.08194801,0.002571362,-0.023613315,0.037420314,-0.09262723,-0.04159338,-0.052402128,-0.067757145,-0.004855596,0.0071514957,0.065255344,0.03167219,-0.054690138,0.0787639,-0.04012336,-0.029364528,0.0031587693,0.087886505,-0.045796465,0.033356138,0.025168559,0.014110916,-0.038629953,0.08148815,0.025889287,0.03490721,0.0352015,-0.094848745,-0.2607515,0.024581991,-0.055286694,0.07799777,0.09321323,0.018888883,-0.05425762,0.095695116,0.023524325,-0.025525225,-0.0023742344,0.051324386,0.03777478,0.06900453,0.07214565,0.078478806,-0.0914389,0.08703829,0.07416096,-0.07572811,0.053488467,-0.027010482,0.028096583,0.047887873,-0.041141003,-0.01351771,-0.010027088,-0.079741135,0.026625866,-0.08114575,0.03361309,-0.08498082,-0.070624605,0.08025819,-0.0265446,0.020552153,-0.020231746,-0.058131963,0.04195455,-0.06458872,0.029023645,0.03441029,0.027424784,-0.07164751,0.028293341,0.057371512,0.025493039,0.067023456,-0.04098067,0.10134312,-0.012714686,-0.017832533,0.09183071,-0.04279086,0.022783738,-0.09868959,0.09570148,-0.07755576,0.08321638,0.02774577,-0.17260809,0.07919786,-0.03465026,0.038205937,0.10841926,0.031982783,-0.03935878,0.027814,0.10625679,0.057874974,0.0031789027,0.101362266,-0.026024787,0.06260855,0.05790146,0.09130258,0.0059462828,0.05586723,0.09623697,0.043559268,0.08753296,-0.030210707,0.09671675,-0.09579616,-0.09311611,0.09209466,-0.039727014,-0.048840698,0.0135397855,-0.032166407,0.055723466,0.07079847,-0.025707338,-0.032308437,0.021808371,-0.051911786,0.073234186,-0.024193464,-0.07795782,0.040706635,-0.06702516,0.09276598,-0.009854886,0.042317234,0.052343458,0.047259435,0.10298606,-0.042674273,-0.08650017,0.027092395,0.0563703,-0.02379465,-0.054070584,0.020192098,-0.06641469,0.0037397651,-0.039607022,-0.01385733,-0.072053425,0.019487068,-0.012863513,-0.07530242,0.022830203,0.06403993,0.13009395,-0.024310572,0.021588543,0.07296785,0.0012521398,-0.064219356,0.06512767,-0.053146206,0.017025582,0.092209384,0.07902252,0.044007838,-0.036081374,-0.020099225,-0.046206445,0.046852134,-0.046314165,0.04955827,0.01653709,0.06564355,-0.035097864,-0.09784619,0.04283832,0.022594614,0.02435559,0.022300329,0.03043351,0.050515622,0.07405079,0.06771051,0.065632805,0.022870913,-0.05134622,0.092620045,-0.0001813009,0.028595276,0.0935799,-0.014272756,-0.08626405,-0.015677478,0.047625978,0.0061339997,0.03909835,0.061871428,-0.048752725,0.024440771,0.0836712,0.022726765,0.03148927,-0.06978205,-0.0288328,0.048359707,0.04529064,-0.091348864,0.07394599,0.03791674,0.010286898,0.04319141,-0.04778697,0.050767116,-0.103096515,0.065315746,-0.03418932,-0.064606294,0.011267511,0.041421823,0.08142755,0.00053050724,-0.037115175,0.04262258,-0.058166526,0.072793335,0.056716748,0.08106712,0.0796617,0.033040445,0.02128967,0.042692844,0.017289126,0.035364777,0.016696392,-0.016322395,-0.050598048,0.04694434,0.064483725,0.10182364,0.03263771,0.07713241,0.06547445,-0.10296858,0.024986401,-0.021129152,-0.03040197,-0.09592714,-0.075458504,0.113186024,-0.09551601,0.047952443,-0.015259068,0.06396919,-0.045605965,0.03690859,-0.00025045237,0.09399763,0.035698093,0.040022027,-0.13953795,-0.12395168,-0.10377728,-0.09782156,0.049567908,-0.00811899,-0.033047445,0.004893606,0.03445459,-0.050851133,-0.043892805,0.08452857,0.024120012,0.0029567648,0.03377921,-0.034173917,-0.055766467,0.04543193,0.042162705,0.05132768,0.08281068,0.01180461,0.06469975,-0.050214794,-0.0009095079,0.06491679,0.100790404,0.04461471,-0.051294386,-0.08282395,0.09087829,0.04251402,-0.055121288,0.07206029,0.07824768,0.05493321,0.02776974,0.099733725,-0.045844678,-0.015603359,0.03486923,-0.03659726,-0.07847383,-0.0974119,-0.024649914,0.034840696,-0.035032157,0.021112744,-0.095737986,0.07446264,0.036690164,0.03256956,-0.018595817,0.0047560083,0.07493812,0.048026234,-0.08702221,0.026706882,0.03141939,0.0032191493,-0.04972334,0.038164057,0.04742932,0.021614173,0.04774252,0.08554463,0.026833054,-0.01664936,0.09965507,-0.07778802,0.035330094,0.07631876,0.041497428,-0.026229817,0.05543422,-0.04566251,0.09726939,0.02134772,-0.09409179,0.0876012,0.034065574,-0.0022119768,0.03246031,0.09297302,0.08913387,0.09276754,0.041728765,0.027678825,-0.2253439,0.041956972,-0.09057195,-0.053247236,0.05933311,0.03910146,0.025023783,-0.09875668,0.06686318,0.03394728,0.08152818,-0.0905967,0.02991578,0.072550714,-0.03315361,0.03936001,0.0071637104,-0.1014077,0.056521073,-0.04212835,0.086132,-0.08556524,0.06555736,0.02455371,-0.084671885,-0.027001265,0.10333882,-0.008144372,0.039340906,-0.041732013,0.017128712,-0.02558784,0.09745557,0.007806134,-0.044736687,0.056977008,-0.043347396,-0.08201305,-0.036051504,0.022884795,-0.043950435,-0.07075065,0.07524104,-0.08560082,-0.05526813,0.021618873,0.042393293,-0.06978498,0.072405025,0.0041523636,-0.058518957,0.105737425,-0.2807528,0.012037593,-0.043632317,-0.1497709,-0.018353598,0.019056821,0.03759092,0.019884862,-0.042339176,-0.09845873,-0.0718889,-0.09142563,0.0356247,-0.031542912,0.031714696,0.021927036,0.01731815,-0.15207455,0.058480434,0.0019080058,-0.0440134,0.013235971,-0.010158319,-0.06970802,-0.033737972,-0.09252671,-0.021827139,-0.069525726,-0.03390943,-0.07403958,0.046005636,-0.03465592,-0.027901508,0.1014926,0.031663053,0.016160056,-0.034584038,0.07379031,0.05821161,0.07360585,-0.0077134054,-0.094356604,0.028601246,-0.010850232
5,0.05826601,0.049727768,0.060807664,-0.021426363,0.028278638,-0.074375495,-0.05429571,0.044187862,0.027303934,0.034490943,0.14265324,0.016007487,-0.00945475,0.047282964,0.031830672,0.0106547335,-0.024156304,0.0071911504,0.03606597,-0.009273757,0.037485622,-0.054912485,-0.060827445,0.03353538,-0.07409723,-0.024589503,0.08781666,0.0048621316,0.043304525,0.040993832,-0.08404553,0.02176354,-0.016103515,-0.059388984,0.05010715,0.014724869,0.055376533,-0.08959256,-0.04610876,0.057943355,0.036692306,-0.058376122,-0.058379214,-0.02127283,0.023673104,0.01605677,-0.04220322,-0.02163448,-0.025266282,-0.024312736,-0.07179412,-0.026916213,-0.03187927,-0.029672874,0.03722021,-0.035919532,0.0362695,0.097442575,-0.0049852417,-0.092569776,0.03451933,-0.011323469,-0.04508475,-0.05843865,0.006494677,-0.10233782,0.015701655,-0.028694855,-0.03184628,0.004463437,0.0270244,0.0015867262,0.04191462,0.04601657,-0.083632186,-0.01906287,0.08807906,-0.04676221,0.050022285,-0.021728761,-0.095427856,0.011372286,-0.09642179,0.0006987262,-0.0720426,-0.08263679,0.094711125,0.04854575,0.05346735,0.002106084,-0.04200125,0.017447071,0.0226955,0.011509653,-0.06295206,0.0018659717,0.03759356,0.08615515,0.022557946,-0.0026115668,-0.031671204,0.032683942,-0.044585705,0.03807727,0.028407505,0.045337986,-0.02878742,-0.09460857,-0.03051366,-0.080715455,-0.024587316,0.063298136,0.044881076,-0.10283926,0.025409624,0.008321461,0.04544249,0.05556063,0.011281722,0.0053708567,-0.052576456,-0.018298265,0.09475568,-0.025229469,0.040670387,0.02340237,-0.07034415,0.08626805,-0.052505318,0.08428526,-0.05353915,0.008797068,-0.06874894,0.020377524,0.07313593,0.07862699,-0.051787127,0.017934691,-0.09519511,0.07667853,0.015348586,0.016788974,-0.012578976,-0.025678847,0.0330107,0.013080272,0.05914574,0.022961862,0.05288007,0.037690673,-0.059465148,-0.05279566,0.024867473,-0.036583792,-0.101689674,-0.04336276,-0.024835853,0.005816876,0.051838912,-0.017307391,0.077128924,-0.08088344,-0.15642548,0.01797444,0.012899297,0.025025075,-0.033635207,0.0082276855,-0.013804908,0.02858526,0.0040341117,-0.01884905,-0.033870727,0.050482284,-0.008652037,0.027171193,-0.09522745,4.9264396e-05,0.07506237,0.0019174076,0.0138878515,-0.029703021,0.04760408,0.08134685,-0.08988267,-0.042365447,0.02817677,0.014490239,0.04272062,-0.060532033,0.033540465,-0.040438715,-0.06651985,-0.09348426,0.067797706,0.081244126,-0.074576356,-0.036661103,0.004244526,0.050455585,-0.034666736,-0.09797341,0.07878957,0.08709196,0.031160701,-0.07196348,-0.03724215,0.011286073,0.007748643,-0.0050750086,0.059770696,-0.011666335,-0.027043384,0.0145595595,0.020473083,-0.09523818,0.014687989,-0.039799985,0.068028904,-0.10187911,-0.10121748,0.027044356,0.05673638,0.07633312,-0.02856822,-0.0475272,0.017519595,-0.088413954,0.02138227,-0.030033754,0.033689488,0.047425974,-0.037482925,0.03723341,0.028540403,-0.029985923,0.08943477,-0.044461057,0.033111833,-0.05962634,-0.06463475,-0.008816804,0.006479206,0.06504553,0.08524393,0.05098894,-0.08540514,0.0006911293,0.01098363,-0.02084261,0.0014168918,0.08861182,-0.067267954,0.027582508,-0.02702096,-0.024291545,-0.021562397,0.06015813,0.062231958,0.02738306,-0.022615885,0.026649404,-0.08526691,0.058640633,0.004819093,-0.07279505,-0.06338194,-0.08627871,0.0024604776,-0.0798019,-0.036290508,-0.094550624,-0.08395952,0.017186636,0.08375146,0.044862114,-0.098968185,-0.02184819,0.022131534,-0.040931158,-0.06421112,-0.07169692,0.011724725,-0.047956765,-0.04959047,0.03716936,-0.030667676,-0.009915562,-0.06635394,-0.034722168,-0.06560641,-0.011812765,0.012148218,-0.07331228,-0.07445982,0.06412845,-0.029057212,-0.03749465,0.008861014,-0.075291134,-0.08597579,0.013689776,-0.10265696,-0.041730754,-0.028694881,0.026800534,0.0272375,-0.027574355,-0.05033183,0.004612207,-0.07064584,0.061178923,0.06727364,0.051356103,0.018444156,0.019357117,-0.07557754,-0.010321443,0.049618244,-0.016326396,-0.047364525,-0.006379177,-0.11498138,0.010724897,-0.023605691,0.064578585,0.01125014,0.018135922,0.12374685,-0.025799885,-0.019165743,-0.025615204,-0.053089883,-0.0006630595,-0.023585418,-0.056890152,-0.09218778,0.058535315,0.06690113,0.037365038,-0.05029453,0.06977193,-0.073068604,-0.027577242,-0.08028134,0.07014129,0.015761018,0.0491904,-0.01765623,-0.025404163,0.009961591,-0.06224368,0.00077326293,-0.02103634,0.0401451,-0.0398576,0.01816609,0.042899597,-0.017889265,-0.083137326,-0.040114336,-0.0177732,0.03853156,0.025971059,-0.021243777,0.009831873,-0.034327056,-0.016482443,0.013199864,-0.030199628,-0.067946956,0.0116175795,0.040429726,-0.05652675,-0.025432684,-0.061963543,-0.083448224,-0.03692669,-0.03228183,0.02901632,0.0659298,0.095482625,-0.061627295,0.05865138,0.030671407,0.012732002,-0.070808895,0.0349635,0.028307056,0.008380515,-0.021507643,-0.0838512,0.046879385,-0.028654749,0.011826885,0.085587345,-0.09021033,-0.09567702,-0.09068551,0.032852236,0.054092105,-0.012959838,0.087721504,-0.059271686,0.020390736,0.017396634,0.037985124,-0.08707814,0.038222,0.006025903,0.069607876,0.041921932,0.060351864,-0.021635553,-0.018324522,-0.025142461,-0.19656996,0.024349647,-0.03846358,0.04153265,-0.018452948,-0.005695472,-0.052053645,0.088055,0.045839194,-0.102447905,0.027864326,0.07467545,0.008113272,-0.023215288,-0.012535892,0.06669016,0.07371893,0.014528165,-0.07798363,0.03681757,0.0220936,0.023378378,0.041260887,-0.06531575,-0.040107787,0.056099836,0.038879912,0.08532147,0.070378564,0.03747086,-0.034470584,-0.059713542,-0.02137062,-0.04440551,-0.0869715,0.016178755,-0.012697381,0.012793434,0.02382332,0.014555815,-0.050677292,-0.02670179,-0.08827007,-0.035446923,0.07770028,0.011995905,-0.038794223,-0.03807697,0.0021454815,-0.05186312,0.0062665204,0.015120242,0.15973687,0.04756363,0.07213803,-0.33309495,-0.019459568,-0.02842409,-0.037522033,0.03132283,-0.12528898,0.00068011717,0.0042007905,0.05971551,0.018053269,-0.024153747,-0.09374503,-0.08934425,0.07888411,-0.26603708,0.014615258,-0.011586768,0.08634876,-0.020801637,-0.00080354814,0.02000565,-0.04491951,-0.089015916,0.07232196,0.03679944,0.055699516,-0.07849757,-0.04654708,0.024243928,0.042044476,0.041275017,-0.04809353,0.056685157,-0.082379006,0.034705915,-0.035605356,0.08247682,0.026569078,0.07421244,-0.016318548,0.017703045
6,0.052283537,0.044094093,-0.020070419,-0.057500724,0.026595425,-0.02582558,0.046118762,-0.08770069,0.021158695,-0.055357505,-0.39491388,-0.0061016763,0.0145244775,0.053026862,-0.041764714,0.04678233,-0.15971978,0.016933374,0.09765604,0.04746958,-0.0060806996,-0.056817986,-0.0850117,0.015966015,-0.015892886,-0.030004172,0.005513441,0.019152567,0.04956236,0.04060614,-0.09292973,-0.034574136,0.027899537,-0.024852112,0.009035633,0.039671175,0.06851139,-0.081230566,-0.0592559,-0.032140944,0.035720866,-0.05054928,-0.063539475,-0.099583946,-0.001372966,0.05472806,0.032342166,-0.03205572,0.083624154,0.1024947,-0.080710806,-0.043417573,-0.10267628,-0.05233504,-0.005828424,-0.03349222,-0.0027023377,0.01679131,0.030710261,-0.028237373,0.004850212,0.01726141,-0.051858094,-0.08198421,0.044333596,-0.08330046,-0.0977237,-0.06514875,0.03224846,0.06839285,-0.098046206,-0.0058595026,0.01931206,0.032391775,-0.03809995,-0.03760007,0.013068891,-0.0437566,0.0031462517,-0.018485438,-0.020890936,-0.073520966,-0.054994307,0.010844233,-0.035992064,-0.020444233,-0.011683775,0.045330584,0.070757344,0.05105997,-0.03265292,0.059861306,0.0669792,0.026470551,-0.09671986,0.062042654,0.011113764,0.064425476,-0.3138825,0.10590482,-0.02790536,0.0438151,0.022539303,-0.05154714,-0.026208775,-0.046630982,0.03409598,-0.051724304,0.08666254,-0.046808213,-0.093201846,0.006161761,0.070651665,-0.066154495,-0.02484266,0.05024227,0.015603278,-0.07925723,-0.012849637,-0.085231856,-0.03356655,-0.01867012,0.035129104,0.09153371,0.021203658,0.0312365,-0.09864862,0.005065519,0.015654303,-0.0035094237,-0.042660486,-0.027410438,-0.086513065,-0.0894366,0.003989325,0.0599626,-0.05802338,-0.04372316,-0.07786187,0.08018826,0.035527665,0.0029231491,0.022029698,-0.079027355,-0.04406172,-0.093707114,0.008400589,-0.0026133158,0.10040048,-0.006286543,-0.03235496,-0.066317,0.07996992,-0.054767422,-0.019630093,-0.026624773,-0.035736598,-0.05221036,-0.055246316,-0.015963888,0.06623458,-0.044661064,0.12696505,-0.035765253,-0.045216687,-0.01778342,0.031818394,-0.10068166,0.008669978,0.013909785,-0.049747903,-0.020582322,-0.06473359,-0.027468843,0.073184446,-0.09895135,-0.032554492,0.035039872,0.06653671,-0.04013733,0.0066118296,-0.05517112,-0.09797595,0.05126248,-0.041873567,-0.016041573,0.013005011,0.03342028,0.042901658,-0.032411437,0.0077397786,-0.019151164,-0.0643489,-0.087695874,0.04161003,0.04342029,-0.06394074,-0.053988688,-0.051179204,0.078363106,0.0044774157,-0.040036593,-0.025492713,-0.039337825,0.009926092,-0.096544445,-0.02000947,-0.017140843,0.018509258,0.07072871,0.008827105,0.01902922,-0.0435422,0.031952642,0.024944793,-0.02785809,0.028178127,-0.07169113,-0.059289467,-0.088184744,-0.027806383,0.0118274,0.06735749,-0.0671675,0.01714878,-0.018992174,-0.012882813,-0.021248287,-0.0745145,-0.02352149,-0.030498223,0.009941206,0.04415866,-0.06464477,0.029715652,-0.017584652,0.015619096,-0.068435915,-0.05667691,-0.07152126,-0.06752141,0.026654765,-0.018614141,0.072835185,-0.031051286,-0.09312645,-0.061031654,-0.034743115,0.014197963,-0.057090536,-0.001535268,-0.05586503,-0.084664695,-0.05404621,-0.028729243,-0.038401973,0.08008367,-0.039854396,0.06725162,-0.003429294,-0.05494873,-0.053369462,-0.033087224,-0.040929068,0.032368097,-0.081634186,-0.03345983,-0.06302911,0.059592403,-0.06383928,-0.0262305,-0.030012242,-0.02646686,-0.048005573,-0.06351899,0.07694967,-0.019195385,0.0235795,-0.027883094,-0.029022457,-0.056560077,-0.03260469,0.058203176,-0.076652706,-0.0928047,0.062450815,0.0013759424,0.09220752,-0.055928573,0.014535464,-0.040121723,0.040619776,0.053818095,-0.0634301,-0.10043119,0.044472873,-0.017996727,0.024713874,0.0430795,-0.06476257,-0.024876442,-0.01265948,-0.03529182,0.019526387,-0.037722394,-0.054263372,-0.016653892,-0.01725662,-0.031221855,0.01215741,-0.089578666,0.044161886,-0.00035592486,0.004439328,-0.02729344,0.045290492,-0.031556293,0.0346593,0.012635853,-0.06475705,0.043953087,-0.0059377267,-0.092918515,-0.06732171,0.02172215,0.07151523,0.020818293,0.04393111,-0.17435412,-0.075926565,-0.032182734,-0.07066745,-0.043180376,-0.022782242,0.0043237535,0.012537257,-0.054956585,-0.04739776,0.055834424,0.030690275,-0.06483315,0.039187983,-0.06696731,-0.085353106,-0.018187316,-0.047916766,-0.07729969,-0.031415757,0.013540498,0.03198869,-0.0043913554,-0.039714094,-0.026912628,-0.05642834,-0.05746497,-0.07732276,0.028134726,-0.001740412,-0.00734351,-0.09730046,0.005018666,-0.069415115,0.038024463,-0.022292396,-0.052574612,0.0114953555,-0.082795165,0.041768823,-0.0586858,-0.08462712,-0.021801395,-0.09616228,0.042232297,-0.100096665,-0.06346106,-0.05678973,-0.022365496,-0.0408199,-0.0522153,0.012555839,-0.0073879473,0.017619612,0.06052001,0.04611259,-0.053833988,-0.06316363,-0.0304206,-0.1618959,0.013196712,-0.0921784,-0.03681945,-0.03610098,0.00092595204,0.04953322,0.012624708,0.043266173,-0.05739671,-0.10112971,-0.09427918,0.014804683,-0.017669765,0.037485983,0.031115983,-0.017143788,-0.038198493,0.020129588,0.03503195,-0.08088752,-0.004062494,0.052791465,-0.10060822,0.054922216,0.014824193,-0.05057228,-0.064693294,-0.019992188,-0.2460713,0.038249303,-0.03482791,0.023615127,-0.07216234,-0.013421563,-0.04749087,0.010782972,-0.026755273,-0.031255204,0.04018477,-0.0049817665,0.0184931,-0.057238866,-0.07906312,0.024193913,-0.0023855115,-0.08965253,-0.0296533,0.020710867,0.008147352,-0.10281813,-0.039807733,-0.083662994,-0.06643353,-0.066420965,0.018127391,0.048508305,0.040947095,0.012926132,-0.027689679,-0.074373804,-0.031891003,-0.09581931,-0.017830677,0.040750943,0.05822149,0.037786298,-0.030572027,0.0043434277,-0.06406391,-0.053649485,-0.027947284,-0.04978353,0.0038074518,-0.090750106,-0.09858537,-0.024519531,0.021827688,0.026256647,-0.022212464,0.010908637,-0.30167356,-0.025037615,-0.044393852,-0.35202616,0.0048850253,-0.0731816,-0.07785275,0.0076309503,-0.13594316,0.0647846,-0.10047654,-0.07576387,-0.05206941,0.01870379,-0.09868874,-0.022737332,0.061210103,-0.19402595,0.04327453,0.04339478,-0.08181692,0.040845122,0.038053602,0.06207158,0.048061017,-0.058779635,0.04923336,-0.10309034,0.04487179,-0.022321383,-0.059549972,0.008473139,0.06912103,0.00500429,-0.03274813,-0.03187035,-0.08658666,0.07419699,-0.033978794,-0.030319462,0.00034379712,-0.048573952,0.02275756,0.018827772
7,-0.058944795,-0.03314381,0.081425264,0.08323834,-0.028162403,0.08736335,-0.015242135,0.02396569,-0.068014525,0.028128609,-0.11621111,-0.067818984,-0.019603992,0.0031883572,-0.09564154,-0.042595446,-0.0070796334,0.004447107,0.1269532,-0.005044356,-0.021167306,-0.03396218,0.05900564,-0.093924575,-0.035343967,0.07371521,-0.033398926,-0.0046116547,0.00023240776,-0.026340086,0.01935632,0.029986866,-0.027033683,0.017106302,-0.051931895,-0.01203008,-0.010007062,0.017450215,-0.0897339,-0.048953414,-0.0565941,0.03361913,-0.081160985,0.080143355,-0.013771265,-0.009672493,-0.054180935,-0.05062113,-0.014327132,-0.026852842,-0.09914878,0.06948908,0.03901894,0.06001232,-0.06278964,0.0678583,0.1119386,0.08074676,0.06435778,0.062323708,-0.030206166,-0.04187896,-0.06702048,-0.1023728,-0.021892598,0.09679625,0.038957477,0.102021486,0.06162746,-0.0042299894,0.054637693,0.06223367,0.015310907,-0.011903684,0.039555572,0.041936785,-0.054542113,0.081028044,-0.015176496,-0.0017153829,0.05277213,0.091580726,-0.09605651,-0.029930245,-0.027283682,0.051080275,-0.028725153,-0.050777294,-0.0059680687,-0.011507197,0.059336007,-0.03982184,-0.047603175,-0.017998504,0.029788554,0.0065313173,-0.037551913,-0.031752285,0.15170966,-0.027907182,-0.08717479,-0.03943312,-0.003327319,0.08037027,0.064151034,0.03774286,-0.03643261,0.049919583,-0.05254496,0.048314486,0.09612828,-0.02319386,-0.007002895,0.061787676,-0.07281011,-0.05586535,-0.07011621,0.044425707,-0.09960682,-0.06476673,0.027797008,0.061610397,-0.02510632,-0.011578365,0.03701839,-0.0001487193,-0.016483195,-0.044067685,0.005217574,-0.021694196,0.08787205,0.026785692,0.037728824,0.08177284,-0.018846039,-0.09538782,0.06375924,-0.038041007,0.04747359,0.02662746,-0.0131096225,0.0044098953,-0.016311934,0.04954488,0.13001299,0.03358482,-0.01415418,-0.045438584,0.075555995,-0.07264515,0.032022957,-0.052277677,-0.016925616,-0.08952369,0.03381703,0.030631924,-0.059877794,0.024842527,-0.08776988,-0.10320326,-0.02481562,0.08220527,-0.19230932,-0.031199973,-0.039952293,-0.03070665,0.0039628693,0.020155491,-0.024557743,-0.027109377,0.062568165,0.028206687,0.04594532,0.061463077,0.013789722,0.054445457,-0.07398575,-0.026741697,-0.0738568,-0.08893827,-0.030382758,-0.018226234,-0.043697473,-0.04958224,0.035067488,-0.103211716,-0.026470205,-0.019138727,-0.018407445,0.016398856,0.0016147932,-0.055217303,0.053423937,0.037872843,-0.016990002,-0.060592905,-0.026853222,0.048848115,-0.0066578244,-0.043312475,-0.012441994,0.05101671,-0.060681038,0.08421572,-0.06920784,-0.04885419,0.10273951,-0.08525694,-0.07388458,-0.025383994,-0.028479494,-0.034407027,0.039742656,0.0457019,-0.0041475464,-0.06309711,-0.06800826,0.03903929,0.09060931,-0.09948078,0.01707485,-0.012657403,-0.025835302,-0.109393455,-0.048869558,-0.04132541,-0.068201475,-0.06360689,-0.037750546,0.07698874,-0.025184799,-0.025823776,-0.071815096,0.05389432,0.014103452,0.044171073,-0.0057652467,-0.06666375,0.046108983,0.05425644,-0.093599714,-0.019871244,-0.04792696,-0.033639785,0.09924573,-0.02203787,-0.08838747,-0.040186808,0.008956867,0.019680062,-0.016059222,-0.04764462,-0.040562514,0.061369136,-0.07455592,0.055426046,-0.059284978,-0.03763879,-0.035876032,-0.016639434,0.029826453,0.029054673,-0.092211865,-0.02980281,-0.05991599,0.030475952,0.038968455,0.09334286,-0.025185931,0.019907761,0.054592095,-0.06215855,0.023992078,-0.10214147,-0.086461894,-0.028681653,0.029473359,-0.02811696,0.046310946,-0.028418416,-0.020508202,0.08370627,-0.047235955,-0.08189295,-0.04575144,-0.028101692,0.03758218,-0.012622899,0.05453935,0.064304866,0.0533644,-0.08062109,-0.033818595,0.017178953,-0.034967363,-0.019838594,-0.044961654,-0.0073594716,0.022111079,0.046103243,0.057642326,0.03336476,-0.07170706,0.08501361,0.058909386,0.06698205,-0.05674094,0.020241993,0.020817991,-0.0052833008,0.058311686,-0.059684984,0.0004481896,-0.035216216,-0.025351023,-0.030459162,0.052650783,0.008499024,-0.012299055,0.029394716,-0.033991594,-0.018585222,0.13796833,0.0001795621,0.035424035,-0.017512776,-0.009545731,0.013724289,0.16763167,0.04033273,-0.02576097,0.043457624,0.028998276,-0.031068543,0.025782155,-0.023949003,-0.086609304,-0.09336116,-0.050984558,-0.09552298,0.09275258,-0.02977884,-0.10128598,0.036327824,-0.054739326,-0.015292957,0.0948313,0.031108394,-0.035744026,-0.044528857,-0.014178752,-0.018096209,-0.027469296,0.023566183,-0.101699635,0.06963457,-0.003925134,-0.021396676,-0.039402146,0.026415212,-0.024891958,0.04957771,-0.00468821,0.03781277,0.022919402,0.0081875445,-0.073608585,-0.015941478,-0.09150916,0.0331302,-0.08042372,-0.096499205,-0.03365703,0.055291288,0.085313424,0.02496072,0.056777805,-0.07376461,-0.03398321,0.015498281,-0.010177557,-0.007115789,-0.046693183,-0.005747257,0.016283127,0.1029491,0.026557544,-0.04451361,0.0010923592,0.101505846,0.06722645,-0.071553506,0.13604344,-0.03567314,-0.04975974,-0.058964197,0.033009443,-0.09097639,0.03262069,-0.0682851,0.0393982,-0.041562438,0.007208138,0.02838234,0.06442598,0.032486584,0.026725702,0.07387854,0.053699877,0.041302696,-0.03805057,-0.05739387,-0.008373665,0.08791218,0.054412346,0.036156677,-0.23692967,0.017537931,0.052445747,-0.054799154,0.0390056,-0.04367979,0.057177227,-0.026164887,0.05925463,-0.09547115,-0.05298135,-0.012694672,-0.045137547,0.027258266,-0.033768445,0.028512985,-0.02118024,-0.112143606,0.033687353,-0.027410567,-0.001383386,-0.008974626,0.024403114,0.05632334,0.022888696,-0.026537288,-0.009261876,-0.030616939,-0.039512984,-0.015259124,-0.015585367,-0.0966044,0.048625365,0.05112852,0.074372746,-0.010444899,-0.04856768,0.0054832883,0.039983142,-0.06257794,-0.076536186,-0.049703725,0.059159584,0.0835826,0.0023155184,0.020764194,0.031455994,0.03470633,-0.02072236,0.00055391685,0.07796654,-0.096470945,-0.14280725,-0.042131785,0.04424643,-0.12295482,0.028703416,0.02426542,0.027260182,-0.03532753,-0.016229091,0.0018428103,0.03288403,0.01704568,0.033988304,-0.023301743,0.018529274,0.015410332,-0.007718479,0.25124124,-0.066255845,-0.031485785,0.026095824,0.011207641,-0.05983028,-0.02923934,-0.03253907,-0.059358813,0.0013918716,-0.035600364,-0.03636802,0.040216826,0.042414185,-0.001493795,0.006082395,-0.072627395,-0.02553217,-0.01893102,0.06407263,-0.025553036,-0.025668489,-0.10316704,0.022174789,0.0345827,0.03690733,-0.0024048202
8,-0.008560279,-0.013128656,-0.02464242,0.017515577,-0.05885983,0.03974553,-0.08174447,-0.01996385,-0.014310783,-0.003079756,0.04710221,-0.06079099,-0.070624076,-0.007853917,-0.010646706,-0.03551929,-0.0079706265,-0.022518823,0.015058262,-0.009221716,-0.05488776,0.029217113,0.03661778,-0.04664917,0.040090825,-0.053030144,-0.05901603,-0.04956219,-0.036161903,-0.03687425,0.05955017,-0.026056878,-0.026034709,-0.059298165,-0.0037923062,-0.040150777,-0.012710903,0.01980788,0.030785935,0.027284887,-0.012624855,0.08958896,0.040913034,0.022876766,-0.02052171,-0.024367195,-0.018002296,0.06365618,-0.090861656,-0.08768527,0.033301782,-0.036884315,-0.047085304,0.08319276,-0.02802313,0.040601827,0.016765589,0.013412619,0.0051069455,0.033597328,-0.043650094,-0.069140464,0.01902596,0.024673387,0.012905145,0.030549802,-0.028254101,0.042214625,-0.011117474,-0.06317838,-0.02556602,0.018089728,-0.027849441,-0.0069175907,-0.045897484,-0.06754598,-0.028674226,0.0206607,-0.03059456,0.047567483,0.0516989,-0.06573152,-0.07140097,-0.075040676,0.028519591,0.1019955,-0.025368705,-0.012127444,-0.043273445,-0.025184626,0.036404792,-0.035705782,-0.017996503,-0.06332045,0.039095342,-0.07566386,-0.01759704,-0.016483823,-0.0170515,-0.044419568,0.08916526,-0.005243064,-0.07991145,-0.00865536,-0.0067003956,-0.024365315,-0.0730235,0.06208581,0.032070108,0.02451489,0.019998087,-0.004666473,-0.016919225,0.049426515,-0.033547666,-0.007685449,-0.016582934,-0.031381138,-0.007206137,-0.0322971,0.09263673,0.040691726,-0.05516114,-0.080968365,-0.03465504,-0.031449337,-0.06488946,-0.025875378,-0.007520515,-0.017345699,0.034940112,-0.0073839645,0.026757414,-0.036224257,-0.0266074,-0.009613,0.050243553,0.006361557,0.076077156,-0.0008260175,-0.011755024,-0.04296797,-0.093934916,0.042956833,0.04567122,-0.031642046,-0.045697168,-0.010742046,-0.061439667,-0.01017035,0.054783266,0.053687904,0.031164875,0.02827559,0.01708641,0.07557148,0.035963263,0.026053058,-0.075387485,-0.04870297,-0.052262295,0.04098691,-0.16799496,-0.09155606,-0.049655806,-0.0074837683,-0.09968442,-0.0028659692,0.016630547,-0.02729621,-0.012058239,0.08223246,0.043163866,-0.036856625,-0.012298961,-0.002432551,0.047068942,-0.022343572,-0.011545529,0.03736283,-0.051144335,0.05614457,-0.028358705,-0.026619202,0.09578323,0.05447175,0.022612173,-0.068181604,-0.017470343,0.046518523,-0.05889652,0.027022984,0.033338953,0.10136652,-0.03762126,-0.004626425,0.03383208,0.021873679,-0.0655795,-0.013994679,-0.07317978,0.020327335,-0.019169074,-0.018400846,-0.017866699,0.040191058,-0.09460501,-0.042184986,-0.035344437,-0.06981479,-0.048162065,-0.06810948,0.06360424,-0.021397224,-0.053978357,0.08120332,-0.03450194,0.07060474,0.07153471,0.042612705,0.028715925,-0.012577599,0.035502374,-0.017867163,-0.025644591,-0.040954616,0.036563717,0.026088895,0.018682057,0.044659488,0.035911944,-0.07105204,0.027723907,-0.029733883,-0.05481909,0.018112596,-0.017476823,0.03083246,-0.004655206,0.036825124,0.038986254,-0.080829956,-0.028772457,-0.011219083,-0.04972131,-0.028574046,-0.03781009,-0.017144801,-0.092140295,0.06360026,-0.027390633,-0.02179003,-0.03691838,-0.028508464,0.020879716,0.04321126,-0.017516062,-0.03401229,-0.03919665,-0.07333051,0.02336133,-0.0143122105,-0.017850477,-0.019185234,0.044503156,0.076086745,-0.02453638,0.03150059,-0.061770655,0.048074197,-0.06878544,0.048799265,0.026091503,-0.019437082,-0.012471443,-0.010000525,0.03719567,-0.06383836,0.08684492,0.0034987784,0.087008975,0.027550327,-0.05214001,0.017749595,0.048520416,-0.06231532,0.024631882,-0.00803027,0.024979964,0.064689584,0.026999475,0.001622032,-0.022897223,0.034008693,-0.043217584,-0.008641565,0.041230865,0.012298935,-0.007686989,0.048058484,0.03218959,-0.014205691,0.04108371,0.016112508,0.08734572,-0.0028292213,-0.060751166,0.07161442,0.025955003,-0.015806051,0.042677965,-0.0067939763,-0.037969854,-0.011462781,-0.06321121,-0.07523931,0.05829011,-0.06920818,-0.014113914,0.086027145,-0.07126518,-0.039425287,-0.030443467,-0.019953711,0.007762043,-0.031628788,-0.00514898,-0.070567206,-0.20464468,-0.031850163,0.03385253,-0.073751345,0.02565518,-0.028410047,0.014140225,-0.09715465,-0.07961187,-0.036169466,-0.020355886,-0.014183736,0.018464454,-0.06275751,-0.053237136,0.017954672,0.035311732,-0.011782172,-0.063362926,0.0600185,-0.08671327,0.025671007,-0.051043212,0.04224179,0.025176661,0.052161958,-0.02850677,0.042065654,-0.069026746,-0.0058584916,-0.05755883,0.042700775,-0.082285486,0.031940095,-0.030637048,-0.0025141065,0.076210655,-0.05175352,0.017788507,-0.059152734,-0.0046740123,0.040569633,0.056044262,-0.039959684,-0.09503724,0.03194385,0.050014142,0.030049203,0.045437433,0.056110717,0.06564849,-0.032701906,-0.015085632,-0.049123056,-0.14524554,-0.04157809,-0.025073968,-0.026570503,0.031463366,0.023752341,-0.05024642,-0.076528125,0.033078715,-0.06280111,0.063267924,-0.083964445,-0.022447053,-0.017707326,0.022800058,0.029570868,0.08215231,-0.031778146,-0.024372982,-0.004801706,-0.024630686,0.04598914,-0.069007546,-0.039215483,-0.010169528,0.024426803,-0.06274912,-0.048553154,-0.035285465,-0.025414359,-0.0021002314,0.05861848,0.027387243,-0.08169031,-0.21423261,-0.041105267,0.054211494,-0.040644344,0.057327118,-0.016697168,0.05307168,-0.009231073,-0.012142874,0.033863634,-0.03326434,-0.018545294,-0.03232919,0.021681506,0.040515464,-0.039815314,-0.03823942,-0.005169266,0.022471942,-0.054759525,0.005202212,-0.047479082,-0.021929346,0.0451471,-0.03906979,-0.044883925,-0.054145817,-0.046165768,-0.014184023,-0.04880253,-0.026716681,0.015945505,0.059121687,-0.07512728,0.084295265,-0.009846685,-0.039506674,-0.082765386,-0.0012283751,0.023064662,0.060468066,0.056342714,0.020066937,0.05805082,-0.002069527,-0.0030939588,0.042800434,0.07004574,-0.008506009,0.022334684,-0.057930022,-0.036079604,-0.27271703,-0.008707987,-0.0053274496,0.27477002,-0.030100107,0.096537694,0.08054787,-0.032459956,-0.020202093,-0.04588863,-0.044666663,-0.014163145,-0.02914011,-0.061342552,0.10091276,-0.03079998,-0.02248062,-0.16128033,-0.044845954,-0.029988341,-0.012183132,0.007860401,-0.05509254,-0.031028971,-0.027931653,0.033024993,-0.03103392,-0.044737726,-0.04744448,0.07005836,0.08724173,-0.022546783,-0.059503254,-0.031780988,0.03834514,-0.029860033,0.024321703,-0.046308916,-0.03799942,-0.029615566,-0.078017056,-0.03532538,-0.026146626,-0.07855843
9,0.013645745,0.015407037,0.08476339,-0.056695815,0.012541268,-0.024459848,0.05928131,0.041929476,0.053328354,0.0019938387,0.0753717,0.022278441,0.09656545,0.07403882,0.08002114,0.08140489,-0.06977649,0.07788294,-0.0017272728,0.052681398,0.03732085,-0.07385773,-0.045250975,0.020587366,-0.05147248,-0.044087477,0.023405833,0.009824699,0.09240563,0.03173551,-0.0829936,0.040626097,0.030714942,-0.060445406,0.057554092,0.0145391505,0.056041837,-0.060679216,-0.0688889,-0.004327528,0.019335689,-0.037417106,-0.044100083,-0.019375578,0.09381203,0.029539963,-0.014156923,-0.03702541,0.08452116,0.07004073,-0.08706904,-0.06709592,-0.06643366,-0.03602904,0.038345993,-0.03613082,0.037575245,0.029177304,-0.01734142,-0.062473737,0.03315432,0.03538029,-0.05103819,-0.09779398,0.05748884,-0.031553186,0.042501874,-0.037081398,-0.03093026,0.05245172,0.0498927,-0.0050409543,-0.033550065,0.04831125,-0.04290051,-0.062751345,0.052474473,-0.09489395,0.036761157,-0.09803917,-0.098675154,0.009967649,0.046734188,0.091822505,-0.0893962,-0.016918547,-0.027443625,0.03769583,0.11057348,0.09642591,-0.048539083,-0.062200934,0.040787287,0.009642853,-0.08032156,0.04465365,0.07303,0.008916796,0.0014984772,0.07966189,-0.04811328,0.04107601,0.069553286,0.0061430363,0.03952763,0.008414517,0.069586806,-0.03344344,-0.01871696,-0.06828732,-0.037218012,0.07790432,0.065052204,-0.044651475,0.012992919,0.027074182,0.0146345915,0.054840572,0.055989534,0.025881339,-0.09193989,-0.02464397,0.03508204,0.049335055,0.03900481,0.058107883,-0.047855195,0.052626643,-0.03160658,0.029083118,-0.04247632,0.066099346,-0.0815612,0.054879922,0.04059596,0.039344903,-0.07811378,-0.00881665,-0.08367556,-0.011797486,0.009715864,0.09841554,0.07448147,-0.06765536,-0.016282141,0.06102442,0.024114005,-0.0064493325,-0.009681841,0.0080297915,-0.072521165,-0.05691602,0.028620228,-0.09943863,-0.099649474,-0.05322754,-0.062703066,-0.031456158,-0.07435658,-0.054499805,0.07289477,-0.041298136,0.099227875,0.02152615,0.028168581,0.05070601,0.023998503,0.039011322,0.03161828,0.037459217,0.06926499,-0.061279036,-0.018620811,0.08826602,-0.0076378477,0.076189436,-0.027741442,-0.040977985,0.011638553,0.014462127,0.06133027,-0.0318569,0.08179129,0.08600033,-0.033288322,-0.07892648,-0.024905842,0.03585425,0.025764028,-0.07304685,0.026369957,-0.02643397,-0.099620074,-0.04450157,0.10577394,0.031982653,-0.0781923,-0.07537223,0.03613502,0.08644923,0.0689475,-0.043533936,0.006578081,0.015909044,0.06653063,-0.06368589,-0.07168732,0.07322726,0.024040334,0.07373129,0.071076676,0.0361358,-0.097419746,-0.026528079,0.083502814,-0.06350708,0.0962588,-0.06854327,0.014372995,-0.07611886,-0.07494788,0.018376954,-0.08745359,0.008160013,-0.036891624,-0.09740041,0.0064128027,-0.03031978,0.014658177,-0.06682568,0.07122728,0.033905488,-0.05610376,0.053348176,-0.03437496,-0.055681303,0.051041074,-0.05056423,0.050624985,-0.03945638,-0.08748295,0.06295695,0.019643975,0.07900064,0.020713307,0.017040264,-0.0641545,0.034832582,0.029470194,-0.046484254,0.09176346,0.040818706,-0.0428213,0.065008625,-0.064249046,-0.06383689,0.0039831474,0.0045842966,0.0037053437,-0.01719262,-0.05370498,-0.017794546,-0.07002998,0.09179734,0.08788677,-0.026519867,-0.061855715,-0.065341696,0.034868196,-0.085928395,-0.031304847,-0.09856325,-0.02193049,0.043911893,0.079135396,0.061932784,-0.097455814,0.08106538,0.016291974,-0.018570239,-0.1021012,-0.09347416,0.026165074,-0.0849113,-0.04580663,0.070128076,0.07317394,0.013380734,-0.09930988,-0.03801609,-0.049869582,0.026262112,0.04237438,-0.047552943,-0.04827768,0.02212362,-0.038343854,0.01733316,0.010707337,-0.030534895,-0.048140395,0.041053966,-0.060072742,0.04024199,-0.10200179,-0.06562395,0.016009202,-0.06427168,-0.037127435,0.028490523,-0.089449994,0.033216417,0.012630565,0.026246393,0.0071265,0.07487048,-0.03730241,0.07828754,0.03713642,-0.068422094,0.073285595,0.012984468,-0.032864477,0.017822806,-0.08171973,0.07240571,0.033122983,-0.0077583757,-0.21463719,-0.012106635,-0.020428715,-0.02123466,-0.05730528,0.0108435545,-0.0559739,0.023778828,-0.09491621,0.0028050595,0.063262105,0.07402419,-0.016561972,0.011826637,-0.06283423,-0.050823163,-0.08858306,0.014959785,0.058100216,-0.016304443,0.06869292,0.04135246,0.065695375,-0.061154038,-0.0124523705,-0.08898266,0.0033332119,-0.052030772,0.043005,0.084711544,0.080388375,-0.06770289,0.068256855,-0.09707992,0.05022992,0.06695753,-0.02758844,0.09110914,-0.017446028,0.09072939,0.03438031,-0.020074403,-0.036011137,0.042119734,-0.017800612,-0.084020056,-0.06556161,-0.09847054,-0.037965454,-0.07153619,-0.02677743,0.07039872,0.0540441,0.02151396,0.047420617,0.011940639,0.029443262,0.082368866,-0.081366956,-0.058392525,0.093849614,0.017203493,-0.038152795,-0.084500246,-0.013554557,0.03254376,0.039375287,0.085740186,-0.0461228,-0.052767906,-0.028262697,0.05821837,0.02478772,0.011237971,0.046996865,-0.08596774,0.029750705,-0.022581913,0.049093757,-0.05220866,0.04127721,0.041531514,0.02572366,0.061895657,0.016271377,-0.08679414,-0.081097566,-0.073921286,-0.18460715,-0.039040156,-0.064070694,0.075787045,-0.06716619,-0.0025477558,-0.06878642,0.017457271,0.03474504,-0.032306146,0.042960323,0.014649122,0.065423444,-0.044057585,-0.11828201,0.014044172,0.06304179,0.07089954,-0.085819185,-0.0025966198,0.01906143,0.045024827,0.069829844,-0.03866723,-0.08429895,0.021824524,0.05942188,0.046631213,-0.030464627,0.015891938,0.036271524,-0.08248301,-0.10102483,-0.016592562,-0.024751976,0.013014296,-0.019497316,0.032884836,-0.024339326,-0.016751807,-0.0988044,-0.057583798,-0.07958912,-0.093334265,0.08871789,0.0752961,-0.083290756,-0.10369964,0.0610671,0.028306322,0.0045593954,0.02498649,-0.29612705,0.020549005,0.0026678017,0.10754878,0.044812396,-0.0835056,-0.0713545,-0.02871695,-0.11994241,0.10457669,0.004102847,0.05212768,0.02518246,0.00958149,-0.019445077,-0.047370292,0.06709966,-0.25026286,0.058743447,0.025514606,0.08225497,0.038892042,0.023554247,0.09607462,-0.03300314,-0.08616737,0.08905166,0.018214747,0.012509508,-0.022452304,-0.05967323,0.066679016,0.06673872,0.03842093,-0.04912735,0.016187867,-0.10393466,0.056918673,-0.070228525,0.022587528,0.014562663,0.059868183,0.013885276,0.03466466
